digraph Tree {
node [shape=box, fontname="helvetica"] ;
edge [fontname="helvetica"] ;
0 [label="FICO <= 0.5\ngini = 0.443\nsamples = 8083\nvalue = [2679, 5404]\nclass = Yes"] ;
1 [label="term <= 0.5\ngini = 0.252\nsamples = 4504\nvalue = [666, 3838]\nclass = Yes"] ;
0 -> 1 [labeldistance=2.5, labelangle=45, headlabel="True"] ;
2 [label="age <= 0.5\ngini = 0.179\nsamples = 4261\nvalue = [423, 3838]\nclass = Yes"] ;
1 -> 2 ;
3 [label="gini = 0.0\nsamples = 1481\nvalue = [0, 1481]\nclass = Yes"] ;
2 -> 3 ;
4 [label="Rent_house <= 0.5\ngini = 0.258\nsamples = 2780\nvalue = [423, 2357]\nclass = Yes"] ;
2 -> 4 ;
5 [label="gini = 0.211\nsamples = 1417\nvalue = [170, 1247]\nclass = Yes"] ;
4 -> 5 ;
6 [label="gini = 0.302\nsamples = 1363\nvalue = [253, 1110]\nclass = Yes"] ;
4 -> 6 ;
7 [label="gini = 0.0\nsamples = 243\nvalue = [243, 0]\nclass = No"] ;
1 -> 7 ;
8 [label="gender <= 0.5\ngini = 0.492\nsamples = 3579\nvalue = [2013, 1566]\nclass = No"] ;
0 -> 8 [labeldistance=2.5, labelangle=-45, headlabel="False"] ;
9 [label="own_house <= 0.5\ngini = 0.354\nsamples = 1625\nvalue = [1251, 374]\nclass = No"] ;
8 -> 9 ;
10 [label="home_loan <= 0.5\ngini = 0.348\nsamples = 1502\nvalue = [1165, 337]\nclass = No"] ;
9 -> 10 ;
11 [label="gini = 0.369\nsamples = 622\nvalue = [470, 152]\nclass = No"] ;
10 -> 11 ;
12 [label="gini = 0.332\nsamples = 880\nvalue = [695, 185]\nclass = No"] ;
10 -> 12 ;
13 [label="Medical_loan <= 0.5\ngini = 0.421\nsamples = 123\nvalue = [86, 37]\nclass = No"] ;
9 -> 13 ;
14 [label="gini = 0.413\nsamples = 120\nvalue = [85, 35]\nclass = No"] ;
13 -> 14 ;
15 [label="gini = 0.444\nsamples = 3\nvalue = [1, 2]\nclass = Yes"] ;
13 -> 15 ;
16 [label="age <= 0.5\ngini = 0.476\nsamples = 1954\nvalue = [762, 1192]\nclass = Yes"] ;
8 -> 16 ;
17 [label="term <= 0.5\ngini = 0.431\nsamples = 1240\nvalue = [389, 851]\nclass = Yes"] ;
16 -> 17 ;
18 [label="gini = 0.325\nsamples = 1069\nvalue = [218, 851]\nclass = Yes"] ;
17 -> 18 ;
19 [label="gini = 0.0\nsamples = 171\nvalue = [171, 0]\nclass = No"] ;
17 -> 19 ;
20 [label="term <= 0.5\ngini = 0.499\nsamples = 714\nvalue = [373, 341]\nclass = No"] ;
16 -> 20 ;
21 [label="gini = 0.414\nsamples = 465\nvalue = [329, 136]\nclass = No"] ;
20 -> 21 ;
22 [label="gini = 0.291\nsamples = 249\nvalue = [44, 205]\nclass = Yes"] ;
20 -> 22 ;
}